network unknown {
}
variable age {
    type discrete [ 4 ] { 1, 2, 3, 4 };
    property weight = None ;
}
variable ca {
    type discrete [ 4 ] { 0, 1, 2, 3 };
    property weight = None ;
}
variable chol {
    type discrete [ 2 ] { 1, 2 };
    property weight = None ;
}
variable cp {
    type discrete [ 4 ] { 1, 2, 3, 4 };
    property weight = None ;
}
variable exang {
    type discrete [ 2 ] { 0, 1 };
    property weight = None ;
}
variable fbs {
    type discrete [ 2 ] { 0, 1 };
    property weight = None ;
}
variable heartdis {
    type discrete [ 2 ] { 0, 1 };
    property weight = None ;
}
variable oldpeak {
    type discrete [ 5 ] { 1, 2, 3, 4, 5 };
    property weight = None ;
}
variable restecg {
    type discrete [ 3 ] { 0, 1, 2 };
    property weight = None ;
}
variable sex {
    type discrete [ 2 ] { 0, 1 };
    property weight = None ;
}
variable slope {
    type discrete [ 3 ] { 1, 2, 3 };
    property weight = None ;
}
variable thal {
    type discrete [ 3 ] { 3, 6, 7 };
    property weight = None ;
}
variable thalach {
    type discrete [ 2 ] { 1, 2 };
    property weight = None ;
}
variable trestbps {
    type discrete [ 2 ] { 1, 2 };
    property weight = None ;
}
probability ( age | thalach ) {
    ( 1 ) 0.16556291390728478, 0.2052980132450331, 0.25165562913907286, 0.37748344370860926;
    ( 2 ) 0.32894736842105265, 0.29605263157894735, 0.23026315789473684, 0.14473684210526316;

}
probability ( ca | heartdis ) {
    ( 0 ) 0.8109756097560976, 0.12804878048780488, 0.042682926829268296, 0.018292682926829267;
    ( 1 ) 0.3381294964028777, 0.31654676258992803, 0.22302158273381295, 0.1223021582733813;

}
probability ( chol | heartdis ) {
    ( 0 ) 0.6158536585365854, 0.38414634146341464;
    ( 1 ) 0.4676258992805755, 0.5323741007194245;

}
probability ( cp | heartdis ) {
    ( 0 ) 0.0975609756097561, 0.25, 0.4146341463414634, 0.23780487804878048;
    ( 1 ) 0.050359712230215826, 0.06474820143884892, 0.12949640287769784, 0.7553956834532374;

}
probability ( exang | cp ) {
    ( 1 ) 0.8260869565217391, 0.17391304347826086;
    ( 2 ) 0.92, 0.08;
    ( 3 ) 0.872093023255814, 0.12790697674418605;
    ( 4 ) 0.4444444444444444, 0.5555555555555556;

}
probability ( fbs ) {
    table 0.8514851485148515, 0.1485148514851485 ;
}
probability ( heartdis | thal ) {
    ( 3 ) 0.7738095238095238, 0.2261904761904762;
    ( 6 ) 0.3333333333333333, 0.6666666666666666;
    ( 7 ) 0.23931623931623933, 0.7606837606837606;

}
probability ( oldpeak | slope ) {
    ( 1 ) 0.6901408450704225, 0.13380281690140844, 0.08450704225352113, 0.07042253521126761, 0.02112676056338028;
    ( 2 ) 0.22142857142857142, 0.10714285714285714, 0.22857142857142856, 0.14285714285714285, 0.3;
    ( 3 ) 0.047619047619047616, 0.09523809523809523, 0.14285714285714285, 0.047619047619047616, 0.6666666666666666;

}
probability ( restecg ) {
    table 0.49834983498349833, 0.013201320132013201, 0.4884488448844885 ;
}
probability ( sex | thal ) {
    ( 3 ) 0.48214285714285715, 0.5178571428571429;
    ( 6 ) 0.05555555555555555, 0.9444444444444444;
    ( 7 ) 0.1282051282051282, 0.8717948717948718;

}
probability ( slope | heartdis ) {
    ( 0 ) 0.6463414634146342, 0.29878048780487804, 0.054878048780487805;
    ( 1 ) 0.2589928057553957, 0.6546762589928058, 0.08633093525179857;

}
probability ( thal ) {
    table 0.5544554455445545, 0.0594059405940594, 0.38613861386138615 ;
}
probability ( thalach | exang, slope ) {
    ( 0, 1 ) 0.22413793103448276, 0.7758620689655172;
    ( 0, 2 ) 0.5657894736842105, 0.4342105263157895;
    ( 0, 3 ) 0.5833333333333334, 0.4166666666666667;
    ( 1, 1 ) 0.38461538461538464, 0.6153846153846154;
    ( 1, 2 ) 0.90625, 0.09375;
    ( 1, 3 ) 0.7777777777777778, 0.2222222222222222;

}
probability ( trestbps ) {
    table 0.5643564356435643, 0.43564356435643564 ;
}
