network unknown {
}
variable age {
    type discrete [ 4 ] { 1, 2, 3, 4 };
    property weight = None ;
}
variable ca {
    type discrete [ 4 ] { 0, 1, 2, 3 };
    property weight = None ;
}
variable cp {
    type discrete [ 4 ] { 1, 2, 3, 4 };
    property weight = None ;
}
variable exang {
    type discrete [ 2 ] { 0, 1 };
    property weight = None ;
}
variable heartdis {
    type discrete [ 2 ] { 0, 1 };
    property weight = None ;
}
variable oldpeak {
    type discrete [ 5 ] { 1, 2, 3, 4, 5 };
    property weight = None ;
}
variable sex {
    type discrete [ 2 ] { 0, 1 };
    property weight = None ;
}
variable slope {
    type discrete [ 3 ] { 1, 2, 3 };
    property weight = None ;
}
variable thal {
    type discrete [ 3 ] { 3, 6, 7 };
    property weight = None ;
}
variable thalach {
    type discrete [ 2 ] { 1, 2 };
    property weight = None ;
}
probability ( age ) {
    table 0.24752475247524752, 0.2508250825082508, 0.24092409240924093, 0.2607260726072607 ;
}
probability ( ca | age, heartdis ) {
    ( 1, 0 ) 0.9259259259259259, 0.05555555555555555, 0.018518518518518517, 0.0;
    ( 1, 1 ) 0.7619047619047619, 0.14285714285714285, 0.047619047619047616, 0.047619047619047616;
    ( 2, 0 ) 0.7916666666666666, 0.14583333333333334, 0.020833333333333332, 0.041666666666666664;
    ( 2, 1 ) 0.35714285714285715, 0.39285714285714285, 0.14285714285714285, 0.10714285714285714;
    ( 3, 0 ) 0.8888888888888888, 0.1111111111111111, 0.0, 0.0;
    ( 3, 1 ) 0.2391304347826087, 0.391304347826087, 0.30434782608695654, 0.06521739130434782;
    ( 4, 0 ) 0.6, 0.22857142857142856, 0.14285714285714285, 0.02857142857142857;
    ( 4, 1 ) 0.22727272727272727, 0.2727272727272727, 0.2727272727272727, 0.22727272727272727;

}
probability ( cp | exang ) {
    ( 0 ) 0.09313725490196079, 0.22549019607843138, 0.36764705882352944, 0.3137254901960784;
    ( 1 ) 0.04040404040404041, 0.04040404040404041, 0.1111111111111111, 0.8080808080808081;

}
probability ( exang ) {
    table 0.6732673267326733, 0.32673267326732675 ;
}
probability ( heartdis | cp ) {
    ( 1 ) 0.6956521739130435, 0.30434782608695654;
    ( 2 ) 0.82, 0.18;
    ( 3 ) 0.7906976744186046, 0.20930232558139536;
    ( 4 ) 0.2708333333333333, 0.7291666666666666;

}
probability ( oldpeak | slope ) {
    ( 1 ) 0.6901408450704225, 0.13380281690140844, 0.08450704225352113, 0.07042253521126761, 0.02112676056338028;
    ( 2 ) 0.22142857142857142, 0.10714285714285714, 0.22857142857142856, 0.14285714285714285, 0.3;
    ( 3 ) 0.047619047619047616, 0.09523809523809523, 0.14285714285714285, 0.047619047619047616, 0.6666666666666666;

}
probability ( sex | thal ) {
    ( 3 ) 0.48214285714285715, 0.5178571428571429;
    ( 6 ) 0.05555555555555555, 0.9444444444444444;
    ( 7 ) 0.1282051282051282, 0.8717948717948718;

}
probability ( slope | thalach ) {
    ( 1 ) 0.23841059602649006, 0.6688741721854304, 0.09271523178807947;
    ( 2 ) 0.6973684210526315, 0.2565789473684211, 0.046052631578947366;

}
probability ( thal | heartdis ) {
    ( 0 ) 0.7926829268292683, 0.036585365853658534, 0.17073170731707318;
    ( 1 ) 0.2733812949640288, 0.08633093525179857, 0.6402877697841727;

}
probability ( thalach ) {
    table 0.49834983498349833, 0.5016501650165016 ;
}
