network unknown {
}
variable age {
    type discrete [ 4 ] { 1, 2, 3, 4 };
    property weight = None ;
}
variable ca {
    type discrete [ 4 ] { 0, 1, 2, 3 };
    property weight = None ;
}
variable chol {
    type discrete [ 2 ] { 1, 2 };
    property weight = None ;
}
variable cp {
    type discrete [ 4 ] { 1, 2, 3, 4 };
    property weight = None ;
}
variable exang {
    type discrete [ 2 ] { 0, 1 };
    property weight = None ;
}
variable fbs {
    type discrete [ 2 ] { 0, 1 };
    property weight = None ;
}
variable heartdis {
    type discrete [ 2 ] { 0, 1 };
    property weight = None ;
}
variable oldpeak {
    type discrete [ 5 ] { 1, 2, 3, 4, 5 };
    property weight = None ;
}
variable restecg {
    type discrete [ 3 ] { 0, 1, 2 };
    property weight = None ;
}
variable sex {
    type discrete [ 2 ] { 0, 1 };
    property weight = None ;
}
variable slope {
    type discrete [ 3 ] { 1, 2, 3 };
    property weight = None ;
}
variable thal {
    type discrete [ 3 ] { 3, 6, 7 };
    property weight = None ;
}
variable thalach {
    type discrete [ 2 ] { 1, 2 };
    property weight = None ;
}
variable trestbps {
    type discrete [ 2 ] { 1, 2 };
    property weight = None ;
}
probability ( age | ca, trestbps ) {
    ( 0, 1 ) 0.46153846153846156, 0.27884615384615385, 0.14423076923076922, 0.11538461538461539;
    ( 0, 2 ) 0.23684210526315788, 0.25, 0.2631578947368421, 0.25;
    ( 1, 1 ) 0.15, 0.25, 0.35, 0.25;
    ( 1, 2 ) 0.0, 0.32, 0.28, 0.4;
    ( 2, 1 ) 0.0, 0.29411764705882354, 0.23529411764705882, 0.47058823529411764;
    ( 2, 2 ) 0.09523809523809523, 0.0, 0.47619047619047616, 0.42857142857142855;
    ( 3, 1 ) 0.0, 0.4, 0.2, 0.4;
    ( 3, 2 ) 0.1, 0.1, 0.1, 0.7;

}
probability ( ca | heartdis ) {
    ( 0 ) 0.8109756097560976, 0.12804878048780488, 0.042682926829268296, 0.018292682926829267;
    ( 1 ) 0.3381294964028777, 0.31654676258992803, 0.22302158273381295, 0.1223021582733813;

}
probability ( chol | exang, heartdis, restecg, sex ) {
    ( 0, 0, 0, 0 ) 0.6578947368421053, 0.34210526315789475;
    ( 0, 0, 0, 1 ) 0.6739130434782609, 0.32608695652173914;
    ( 0, 0, 1, 0 ) 1.0, 0.0;
    ( 0, 0, 1, 1 ) 0.5, 0.5;
    ( 0, 0, 2, 0 ) 0.24, 0.76;
    ( 0, 0, 2, 1 ) 0.7096774193548387, 0.2903225806451613;
    ( 0, 1, 0, 0 ) 0.0, 1.0;
    ( 0, 1, 0, 1 ) 0.8181818181818182, 0.18181818181818182;
    ( 0, 1, 1, 0 ) 0.5, 0.5;
    ( 0, 1, 1, 1 ) 0.0, 1.0;
    ( 0, 1, 2, 0 ) 0.3333333333333333, 0.6666666666666666;
    ( 0, 1, 2, 1 ) 0.41379310344827586, 0.5862068965517241;
    ( 1, 0, 0, 0 ) 0.0, 1.0;
    ( 1, 0, 0, 1 ) 0.8888888888888888, 0.1111111111111111;
    ( 1, 0, 1, 0 ) 0.5, 0.5;
    ( 1, 0, 1, 1 ) 0.5, 0.5;
    ( 1, 0, 2, 0 ) 0.5, 0.5;
    ( 1, 0, 2, 1 ) 0.8333333333333334, 0.16666666666666666;
    ( 1, 1, 0, 0 ) 0.5714285714285714, 0.42857142857142855;
    ( 1, 1, 0, 1 ) 0.44, 0.56;
    ( 1, 1, 1, 0 ) 0.5, 0.5;
    ( 1, 1, 1, 1 ) 0.5, 0.5;
    ( 1, 1, 2, 0 ) 0.2, 0.8;
    ( 1, 1, 2, 1 ) 0.40540540540540543, 0.5945945945945946;

}
probability ( cp | exang, heartdis ) {
    ( 0, 0 ) 0.09219858156028368, 0.2695035460992908, 0.4326241134751773, 0.20567375886524822;
    ( 0, 1 ) 0.09523809523809523, 0.12698412698412698, 0.2222222222222222, 0.5555555555555556;
    ( 1, 0 ) 0.13043478260869565, 0.13043478260869565, 0.30434782608695654, 0.43478260869565216;
    ( 1, 1 ) 0.013157894736842105, 0.013157894736842105, 0.05263157894736842, 0.9210526315789473;

}
probability ( exang | heartdis ) {
    ( 0 ) 0.8597560975609756, 0.1402439024390244;
    ( 1 ) 0.45323741007194246, 0.5467625899280576;

}
probability ( fbs ) {
    table 0.8514851485148515, 0.1485148514851485 ;
}
probability ( heartdis | sex, thal ) {
    ( 0, 3 ) 0.8641975308641975, 0.13580246913580246;
    ( 0, 6 ) 0.0, 1.0;
    ( 0, 7 ) 0.13333333333333333, 0.8666666666666667;
    ( 1, 3 ) 0.6896551724137931, 0.3103448275862069;
    ( 1, 6 ) 0.35294117647058826, 0.6470588235294118;
    ( 1, 7 ) 0.2549019607843137, 0.7450980392156863;

}
probability ( oldpeak | heartdis, slope ) {
    ( 0, 1 ) 0.7075471698113207, 0.1320754716981132, 0.08490566037735849, 0.0660377358490566, 0.009433962264150943;
    ( 0, 2 ) 0.40816326530612246, 0.14285714285714285, 0.1836734693877551, 0.1836734693877551, 0.08163265306122448;
    ( 0, 3 ) 0.1111111111111111, 0.2222222222222222, 0.2222222222222222, 0.0, 0.4444444444444444;
    ( 1, 1 ) 0.6388888888888888, 0.1388888888888889, 0.08333333333333333, 0.08333333333333333, 0.05555555555555555;
    ( 1, 2 ) 0.12087912087912088, 0.08791208791208792, 0.25274725274725274, 0.12087912087912088, 0.4175824175824176;
    ( 1, 3 ) 0.0, 0.0, 0.08333333333333333, 0.08333333333333333, 0.8333333333333334;

}
probability ( restecg | heartdis ) {
    ( 0 ) 0.5792682926829268, 0.006097560975609756, 0.4146341463414634;
    ( 1 ) 0.4028776978417266, 0.02158273381294964, 0.5755395683453237;

}
probability ( sex | thal ) {
    ( 3 ) 0.48214285714285715, 0.5178571428571429;
    ( 6 ) 0.05555555555555555, 0.9444444444444444;
    ( 7 ) 0.1282051282051282, 0.8717948717948718;

}
probability ( slope | heartdis ) {
    ( 0 ) 0.6463414634146342, 0.29878048780487804, 0.054878048780487805;
    ( 1 ) 0.2589928057553957, 0.6546762589928058, 0.08633093525179857;

}
probability ( thal ) {
    table 0.5544554455445545, 0.0594059405940594, 0.38613861386138615 ;
}
probability ( thalach | exang, restecg, slope ) {
    ( 0, 0, 1 ) 0.2, 0.8;
    ( 0, 0, 2 ) 0.6666666666666666, 0.3333333333333333;
    ( 0, 0, 3 ) 0.2, 0.8;
    ( 0, 1, 1 ) 0.5, 0.5;
    ( 0, 1, 2 ) 1.0, 0.0;
    ( 0, 1, 3 ) 1.0, 0.0;
    ( 0, 2, 1 ) 0.2608695652173913, 0.7391304347826086;
    ( 0, 2, 2 ) 0.47619047619047616, 0.5238095238095238;
    ( 0, 2, 3 ) 0.8333333333333334, 0.16666666666666666;
    ( 1, 0, 1 ) 0.08333333333333333, 0.9166666666666666;
    ( 1, 0, 2 ) 0.8214285714285714, 0.17857142857142858;
    ( 1, 0, 3 ) 1.0, 0.0;
    ( 1, 1, 1 ) 0.5, 0.5;
    ( 1, 1, 2 ) 1.0, 0.0;
    ( 1, 1, 3 ) 0.5, 0.5;
    ( 1, 2, 1 ) 0.6428571428571429, 0.35714285714285715;
    ( 1, 2, 2 ) 0.9705882352941176, 0.029411764705882353;
    ( 1, 2, 3 ) 0.6666666666666666, 0.3333333333333333;

}
probability ( trestbps | cp, exang ) {
    ( 1, 0 ) 0.21052631578947367, 0.7894736842105263;
    ( 1, 1 ) 0.75, 0.25;
    ( 2, 0 ) 0.7391304347826086, 0.2608695652173913;
    ( 2, 1 ) 0.25, 0.75;
    ( 3, 0 ) 0.5866666666666667, 0.41333333333333333;
    ( 3, 1 ) 0.6363636363636364, 0.36363636363636365;
    ( 4, 0 ) 0.578125, 0.421875;
    ( 4, 1 ) 0.5125, 0.4875;

}
