network unknown {
}
variable age {
    type discrete [ 4 ] { 29-39, 40-49, 50-59, 60-79 };
}
variable ca {
    type discrete [ 4 ] { 0.0, 1.0, 2.0, 3.0 };
}
variable chol {
    type discrete [ 3 ] { peligroso, riesgoso, saludable };
}
variable cp {
    type discrete [ 4 ] { 1.0, 2.0, 3.0, 4.0 };
}
variable exang {
    type discrete [ 2 ] { 0.0, 1.0 };
}
variable fbs {
    type discrete [ 2 ] { 0.0, 1.0 };
}
variable num {
    type discrete [ 5 ] { 0, 1, 2, 3, 4 };
}
variable oldpeak {
    type discrete [ 3 ] { baja, normal, terrible };
}
variable restecg {
    type discrete [ 3 ] { 0.0, 1.0, 2.0 };
}
variable sex {
    type discrete [ 2 ] { 0.0, 1.0 };
}
variable slope {
    type discrete [ 3 ] { 1.0, 2.0, 3.0 };
}
variable thal {
    type discrete [ 3 ] { 3.0, 6.0, 7.0 };
}
variable trestbps {
    type discrete [ 5 ] { crisis hipertensión, elevada, hiptertensión nivel 1, hiptertensión nivel 2, normal };
}
probability ( age ) {
    table 0.04975124378109453, 0.2835820895522388, 0.5323383084577115, 0.13432835820895522 ;
}
probability ( ca | num ) {
    ( 0 ) 0.7888888888888889, 0.13333333333333333, 0.05555555555555555, 0.022222222222222223;
    ( 1 ) 0.43243243243243246, 0.35135135135135137, 0.13513513513513514, 0.08108108108108109;
    ( 2 ) 0.25806451612903225, 0.3548387096774194, 0.2903225806451613, 0.0967741935483871;
    ( 3 ) 0.25806451612903225, 0.22580645161290322, 0.3870967741935484, 0.12903225806451613;
    ( 4 ) 0.25, 0.25, 0.16666666666666666, 0.3333333333333333;

}
probability ( chol | age, sex ) {
    ( 29-39, 0.0 ) 0.0, 0.6666666666666666, 0.3333333333333333;
    ( 29-39, 1.0 ) 0.14285714285714285, 0.42857142857142855, 0.42857142857142855;
    ( 40-49, 0.0 ) 0.5882352941176471, 0.23529411764705882, 0.17647058823529413;
    ( 40-49, 1.0 ) 0.5, 0.3, 0.2;
    ( 50-59, 0.0 ) 0.8064516129032258, 0.12903225806451613, 0.06451612903225806;
    ( 50-59, 1.0 ) 0.5, 0.34210526315789475, 0.15789473684210525;
    ( 60-79, 0.0 ) 0.3, 0.5, 0.2;
    ( 60-79, 1.0 ) 0.5294117647058824, 0.35294117647058826, 0.11764705882352941;

}
probability ( cp | exang, trestbps ) {
    ( 0.0, crisis hipertensión ) 0.25, 0.25, 0.25, 0.25;
    ( 0.0, elevada ) 0.0, 0.1111111111111111, 0.5555555555555556, 0.3333333333333333;
    ( 0.0, hiptertensión nivel 1 ) 0.10344827586206896, 0.2413793103448276, 0.3448275862068966, 0.3103448275862069;
    ( 0.0, hiptertensión nivel 2 ) 0.2391304347826087, 0.043478260869565216, 0.34782608695652173, 0.3695652173913043;
    ( 0.0, normal ) 0.05128205128205128, 0.1794871794871795, 0.358974358974359, 0.41025641025641024;
    ( 1.0, crisis hipertensión ) 0.0, 0.0, 0.3333333333333333, 0.6666666666666666;
    ( 1.0, elevada ) 0.09090909090909091, 0.0, 0.09090909090909091, 0.8181818181818182;
    ( 1.0, hiptertensión nivel 1 ) 0.0, 0.0, 0.13333333333333333, 0.8666666666666667;
    ( 1.0, hiptertensión nivel 2 ) 0.04, 0.0, 0.12, 0.84;
    ( 1.0, normal ) 0.08333333333333333, 0.041666666666666664, 0.08333333333333333, 0.7916666666666666;

}
probability ( exang ) {
    table 0.6119402985074627, 0.3880597014925373 ;
}
probability ( fbs | age ) {
    ( 29-39 ) 1.0, 0.0;
    ( 40-49 ) 0.8596491228070176, 0.14035087719298245;
    ( 50-59 ) 0.8317757009345794, 0.16822429906542055;
    ( 60-79 ) 0.8148148148148148, 0.18518518518518517;

}
probability ( num | exang ) {
    ( 0.0 ) 0.6178861788617886, 0.13821138211382114, 0.0975609756097561, 0.08943089430894309, 0.056910569105691054;
    ( 1.0 ) 0.1794871794871795, 0.2564102564102564, 0.24358974358974358, 0.2564102564102564, 0.0641025641025641;

}
probability ( oldpeak | num ) {
    ( 0 ) 0.7222222222222222, 0.23333333333333334, 0.044444444444444446;
    ( 1 ) 0.5405405405405406, 0.32432432432432434, 0.13513513513513514;
    ( 2 ) 0.3548387096774194, 0.25806451612903225, 0.3870967741935484;
    ( 3 ) 0.3870967741935484, 0.25806451612903225, 0.3548387096774194;
    ( 4 ) 0.25, 0.25, 0.5;

}
probability ( restecg | num ) {
    ( 0 ) 0.5555555555555556, 0.011111111111111112, 0.43333333333333335;
    ( 1 ) 0.43243243243243246, 0.0, 0.5675675675675675;
    ( 2 ) 0.4838709677419355, 0.03225806451612903, 0.4838709677419355;
    ( 3 ) 0.3870967741935484, 0.03225806451612903, 0.5806451612903226;
    ( 4 ) 0.16666666666666666, 0.08333333333333333, 0.75;

}
probability ( sex ) {
    table 0.3034825870646766, 0.6965174129353234 ;
}
probability ( slope | num ) {
    ( 0 ) 0.4666666666666667, 0.4444444444444444, 0.08888888888888889;
    ( 1 ) 0.21621621621621623, 0.7297297297297297, 0.05405405405405406;
    ( 2 ) 0.12903225806451613, 0.7741935483870968, 0.0967741935483871;
    ( 3 ) 0.12903225806451613, 0.7096774193548387, 0.16129032258064516;
    ( 4 ) 0.0, 0.8333333333333334, 0.16666666666666666;

}
probability ( thal | exang, num ) {
    ( 0.0, 0 ) 0.75, 0.039473684210526314, 0.21052631578947367;
    ( 0.0, 1 ) 0.4117647058823529, 0.058823529411764705, 0.5294117647058824;
    ( 0.0, 2 ) 0.25, 0.08333333333333333, 0.6666666666666666;
    ( 0.0, 3 ) 0.09090909090909091, 0.09090909090909091, 0.8181818181818182;
    ( 0.0, 4 ) 0.0, 0.2857142857142857, 0.7142857142857143;
    ( 1.0, 0 ) 0.7142857142857143, 0.07142857142857142, 0.21428571428571427;
    ( 1.0, 1 ) 0.2, 0.1, 0.7;
    ( 1.0, 2 ) 0.15789473684210525, 0.21052631578947367, 0.631578947368421;
    ( 1.0, 3 ) 0.15, 0.0, 0.85;
    ( 1.0, 4 ) 0.2, 0.0, 0.8;

}
probability ( trestbps | age, chol, fbs ) {
    ( 29-39, peligroso, 0.0 ) 0.0, 0.0, 1.0, 0.0, 0.0;
    ( 29-39, peligroso, 1.0 ) 0.2, 0.2, 0.2, 0.2, 0.2;
    ( 29-39, riesgoso, 0.0 ) 0.0, 0.0, 0.4, 0.0, 0.6;
    ( 29-39, riesgoso, 1.0 ) 0.2, 0.2, 0.2, 0.2, 0.2;
    ( 29-39, saludable, 0.0 ) 0.0, 0.0, 0.25, 0.25, 0.5;
    ( 29-39, saludable, 1.0 ) 0.2, 0.2, 0.2, 0.2, 0.2;
    ( 40-49, peligroso, 0.0 ) 0.0, 0.07692307692307693, 0.3076923076923077, 0.2692307692307692, 0.34615384615384615;
    ( 40-49, peligroso, 1.0 ) 0.0, 0.25, 0.25, 0.25, 0.25;
    ( 40-49, riesgoso, 0.0 ) 0.0, 0.21428571428571427, 0.2857142857142857, 0.14285714285714285, 0.35714285714285715;
    ( 40-49, riesgoso, 1.0 ) 0.0, 0.0, 0.0, 0.5, 0.5;
    ( 40-49, saludable, 0.0 ) 0.0, 0.0, 0.1111111111111111, 0.2222222222222222, 0.6666666666666666;
    ( 40-49, saludable, 1.0 ) 0.0, 0.0, 0.5, 0.5, 0.0;
    ( 50-59, peligroso, 0.0 ) 0.019230769230769232, 0.15384615384615385, 0.17307692307692307, 0.40384615384615385, 0.25;
    ( 50-59, peligroso, 1.0 ) 0.09090909090909091, 0.09090909090909091, 0.45454545454545453, 0.36363636363636365, 0.0;
    ( 50-59, riesgoso, 0.0 ) 0.0, 0.12, 0.24, 0.32, 0.32;
    ( 50-59, riesgoso, 1.0 ) 0.0, 0.2, 0.0, 0.6, 0.2;
    ( 50-59, saludable, 0.0 ) 0.0, 0.0, 0.3333333333333333, 0.4166666666666667, 0.25;
    ( 50-59, saludable, 1.0 ) 0.0, 0.0, 0.0, 1.0, 0.0;
    ( 60-79, peligroso, 0.0 ) 0.0, 0.0, 0.1, 0.4, 0.5;
    ( 60-79, peligroso, 1.0 ) 0.5, 0.5, 0.0, 0.0, 0.0;
    ( 60-79, riesgoso, 0.0 ) 0.0, 0.0, 0.0, 0.4444444444444444, 0.5555555555555556;
    ( 60-79, riesgoso, 1.0 ) 0.0, 0.0, 0.0, 1.0, 0.0;
    ( 60-79, saludable, 0.0 ) 0.0, 0.0, 0.0, 0.6666666666666666, 0.3333333333333333;
    ( 60-79, saludable, 1.0 ) 0.0, 0.0, 0.0, 1.0, 0.0;

}
